0.000000 0.000000 0.000000 0.000000 0.000000 0.000000 0.000000 0.000000 0.000000 0.000000 0.000000 0.000000 0.000000 0.000000 
-0.982200 -1.095067 -1.410341 -0.741820 0.742166 -1.657666 -0.282571 -0.511808 -1.236727 0.411987 -0.651154 -0.930513 0.437542 0.264882 
-1.216781 1.297121 -1.890676 -1.312123 1.170107 0.027530 -0.392439 -0.937248 0.577842 0.124207 -1.714723 -0.135498 0.289303 -0.303558 
-0.706110 4.759352 -6.205304 -0.712950 -0.848106 2.371601 -3.549935 -0.109841 -3.278713 -5.803553 -0.469355 2.241599 -2.915800 -1.407108 
-1.897687 -0.374979 -0.966001 0.025655 -0.830678 0.587482 0.025526 0.287817 -0.662037 -1.544486 -1.136355 -0.731544 -0.998332 0.011888 
0.484891 -2.029729 -0.642133 -1.111320 -0.423173 0.900529 -0.485955 0.006880 -0.140803 -2.202599 0.095960 -2.105460 1.923794 -0.832860 
-1.041752 -0.681152 -1.015083 -1.414499 -0.210222 -0.241349 0.655787 -0.928279 0.597792 1.327448 -3.126459 -0.732915 -0.412572 -0.926372 
-1.289377 0.190592 0.316936 -0.416038 -0.947315 -0.343146 0.190037 -0.931413 -0.770853 0.761972 -1.563701 -1.236250 -0.226694 -0.131273 
-2.046709 0.133568 -1.223334 -0.965253 -0.936636 0.095826 -1.651541 -0.411375 -0.887853 -2.428349 0.180252 0.601811 -0.968222 -0.313555 
-0.073392 -5.016582 2.505274 -0.928536 0.945510 -4.856680 3.555144 -2.488748 3.471964 3.354650 -0.782571 -3.192183 2.812507 2.482136 
-2.087351 -0.869441 -2.106978 -1.651771 0.772451 -2.948084 0.862861 -1.540097 0.145183 4.535473 -4.921208 -1.453528 -0.236678 0.793883 
0.037179 -0.248418 0.040963 -0.696246 -0.671505 -1.146205 -0.872976 0.171938 -1.108537 -1.398772 -1.218245 -0.882307 0.534193 -1.341360 
