 0.061323595693004 
-0.065949427089747 
 0.029005632846712 
-5.028290000000004 
 0.201242088848039 
 7.194060000000000 
-2.875880000000001 
-0.038973085760170 
 2.966349999999998 
-3.663600000000007 
 0.079508627845781 
-0.090032212186161 
-1.437419999999982 
 0.002908887780445 
 4.397879999999999 
-6.602929999999998 
 0.118096190476190 
 0.192411661151961 
 0.682847000000001 
 0.017837362352462 
-0.048509876251527 
-4.771364999999999 
-0.027806737184189 
-2.046130000000001 
 0.049249365127162 
 2.102529999999999 
-0.082352405993884 
-0.433095000000000 
 0.091483051025405 
-5.921369999999998 
-0.007768514984728 
 8.114150000000000 
-0.018098016839326 
-3.315770000000001 
-0.068090793176255 
-0.779320000000001 
 1.112780000000000 
 0.033375158863081 
 0.024391218020770 
-5.511975000000000 
-2.416679999999999 
 0.104072942883323 
-3.963850000000000 
-0.045152039394865 
 0.057068976605505 
-0.004640970279022 
 0.014427187948874 
-0.151151263157895 
-4.357623333333332 
-0.036321340324060 
-0.055620025591267 
-2.987045000000000 
-1.074885000000000 
 0.765313333333333 
-1.205136666666667 
-5.730885000000000 
 0.043910873857404 
-0.012786288822115 
-0.214477000000000 
-0.021050072222222 
-0.024795305851874 
 0.053883306505803 
 0.066202967724222 
-0.076108700000000 
 0.074150950000000 
-5.302630000000000 
-0.072873545927740 
-0.093732763978002 
-6.402380000000000 
-4.604880000000000 
-4.294720000000000 
 0.010372868271084 
-0.955971000000000 
-2.712036666666667 
-0.032274829020556 
 0.036594165913256 
 0.020973963863498 
 0.022076427045177 
 0.027117105558949 
-0.060369800000000 
-0.075225240000000 
-0.069809389767157 
 0.523553000000000 
 0.000397418683905 
 0.962503000000000 
-4.045395000000000 
-0.293778000000000 
-0.058335402440513 
-0.063396665618620 
-0.049911148238153 
-0.042233600669100 
-2.509654000000000 
-0.002404111903893 
-3.761385000000000 
 0.026068400000000 
 0.024910900000000 
 0.012677857893130 
-0.029752774042553 
 0.016329656160751 
-0.047450750000000 
-0.040321846452599 
-0.080097475000000 
-0.074547250000000 
-0.064697987392901 
-0.078044142857143 
-0.073824500000000 
-0.065342323835784 
-0.071842566666667 
-0.070893555524946 
 2.002080000000000 
 2.866440000000000 
-0.084997750000000 
-0.087169180000000 
-0.089484033333333 
-0.111211523809524 
 0.142722500000000 
 0.262191000000000 
-4.204290000000000 
-6.512640000000000 
 0.031227370383912 
 0.025642700000000 
 0.038590555555556 
 0.041782908333333 
 0.035199252557427 
 0.071582137500000 
 0.084401200000000 
 0.075891453883792 
 0.063925700000000 
