 0.043911494390247 
-0.039270266129690 
 0.033375158863081 
-5.302630000010318 
-0.082351622582632 
 0.201225000000000 
 4.397879999999994 
-2.875879999999993 
 7.194060000000000 
-4.030683333333341 
 0.118161407181987 
-0.070351896539051 
-0.955970999999925 
-0.004640970279022 
 2.002079999999999 
 0.079508627845777 
 0.765313333333333 
-6.602929999999996 
 0.016328841936800 
-0.027806737184189 
-4.771364999999998 
 2.866439999999999 
-2.046130000000000 
 0.091483051025406 
-0.226431500000200 
-4.357623333333334 
-0.065019958328229 
-0.090030195410037 
-0.085482550000000 
-0.093947269146341 
 0.066204402615572 
-0.018098016839326 
-5.921370000000001 
 8.114150000000000 
-0.045451411036586 
 0.000397418683905 
-2.987045000000000 
-1.205136666666667 
 0.682847000000000 
 0.020973963863498 
-2.509654000000000 
 0.104072942883323 
-0.058342059331307 
-3.663600000000000 
-5.028290000000000 
 0.053883306505803 
 0.029005632846715 
 0.013262214413681 
 0.962503000000000 
-0.076105121563836 
-0.433095000000000 
-3.315770000000000 
-0.090857650000000 
-0.151151263157895 
-0.024795305851874 
 0.245652500000000 
 0.192391018983466 
-1.074885000000000 
-0.035638751985339 
-1.437420000000000 
-5.730885000000000 
 0.057068976605505 
 0.049249365127162 
-0.012786288822115 
 0.061324284717405 
 0.084401200000000 
 0.074728903467265 
-5.511975000000000 
-0.007768514984728 
-0.042233600669100 
-0.049205922779805 
-0.063232058261934 
 0.024395712278558 
 0.027116465323565 
-0.068473297917943 
-6.402380000000000 
-4.604880000000000 
-4.204290000000000 
 0.022073035416667 
 0.023082437500000 
 0.005781239583333 
 0.010391333033233 
-0.779320000000000 
-2.712036666666667 
-0.044854887461774 
-0.037543490308774 
 0.523553000000000 
 0.002887058352514 
 1.112780000000000 
-3.926440000000000 
-0.309519500000000 
-0.063725400000000 
-0.078331933333333 
-0.067709673777506 
-0.067956712294881 
-0.065949427089689 
-0.064116712294881 
-0.079986100000000 
-0.080431600000000 
-0.077505333333333 
-0.078797200000000 
-0.072873186263736 
-0.021050072222222 
-0.040322219216646 
-0.032273655595886 
 0.036594165913256 
-2.416680000000000 
-0.002404111903893 
-3.761385000000000 
 0.017837362352462 
-0.029752774042553 
-0.055614528268765 
-0.087169180000000 
-0.093517339314146 
-0.092609638057900 
-0.084219466666667 
-0.111211523809524 
 2.102530000000000 
 2.966350000000000 
-4.294720000000000 
-6.512640000000000 
 0.042208240000000 
 0.023754466666667 
 0.038462100000000 
 0.035199252557427 
 0.040455975000000 
 0.035998690143424 
 0.031227370383912 
