 0.999767599999424  0.000948271799876 
 0.500868299999861  0.700939999999856 
-0.398885999999901  0.000041105799954 
-0.600350300000035 -0.300771899999842 
-0.301475500000023  0.899091499999886 
 0.499617299999958 -0.498808300000276 
 1.000305699999892  0.200004599999982 
 0.000209140792071  0.000954852594032 
-0.699607899999958  0.600129300000047 
 1.000741899999941  0.901771700000031 
 0.099381030000000  0.900795200000041 
 0.901918899999967 -0.701750400000042 
-0.100352969999964 -0.398722499999858 
-0.601449100000036  0.000579801647016 
-0.200808500000009  0.599870800000007 
-0.098261170000005 -0.699903899999981 
-0.701003199999981 -0.900158899999993 
 0.599525599999983 -0.099954010000003 
-0.600557899999966  0.098649090000012 
 0.300642100000002 -0.901334600000008 
 0.300439599999992  0.499190499999986 
 0.999737099999994 -0.898374500000010 
 0.600897700000007  0.200397699999999 
-0.800071599999980 -0.401628900000018 
-0.799826000000006  0.299070500000000 
 0.699404000000008  0.600611100000006 
-0.300385500000000  0.200149300000000 
-0.599080800000007  0.900093400000001 
 0.999309699999986 -0.499239000000009 
 0.401381100000002  0.100794530000003 
 0.500469599999989 -0.599563200000001 
 0.300732300000000 -0.501843000000002 
-0.298722999999985  0.398886299999994 
-0.301343000000004 -0.699183100000006 
 0.699835299999998  0.900492300000000 
 0.898665900000007  0.598732500000009 
-0.498974399999991  0.700587199999995 
-0.801376999999996 -0.898988100000000 
 1.001155299999997 -0.300877699999999 
-0.200727700000000  0.902476699999998 
-0.299087800000000 -0.500888699999998 
-0.302188200000004 -0.200774299999999 
 0.500207199999999  0.499727000000003 
 0.400681100000002 -0.198620699999995 
 0.199687200000002  0.900824099999989 
-0.599697400000007  0.301995999999996 
-0.000527242299999 -0.099963449999998 
 0.099350550000001 -0.299753700000000 
-0.001072850700001  0.398609100000004 
-0.499792500000004 -0.699032999999993 
 0.599624700000002 -0.999414000000005 
 0.699934500000000 -0.401063300000002 
-0.101382329999999 -0.901581000000004 
-0.899751599999994 -0.200105699999999 
-0.601116200000003 -0.599041700000009 
-0.101315470000000  0.600806200000002 
-0.798490000000004  0.900017099999997 
-0.799635400000005  0.098104500000000 
 0.799386999999994  0.199837500000001 
 0.601389700000000 -0.200048300000000 
 0.000736859360000 -0.998680199999997 
 0.799822099999999 -0.897672099999997 
 0.401091799999999 -0.700039899999998 
 0.798811199999996 -0.001331340328000 
 1.000114000000003  0.399095900000002 
-0.900373900000002 -0.700961099999998 
 0.699442800000000 -0.699613099999999 
 1.000973499999998  0.800389100000001 
 0.100024170000000 -0.499381400000000 
-0.600092900000000  0.200644400000000 
-0.799875499999998  0.498770799999998 
 0.200283600000001  0.198280700000001 
 0.499068600000005  0.097376470000000 
-0.199765699999999  0.000518542670000 
 0.700808300000005  0.400391499999998 
-0.399717500000000  0.499726700000000 
 0.098645900000000 -0.699022099999997 
-0.300725000000000  0.701409299999997 
 0.299118700000000 -0.001412251400000 
-0.401711699999997 -0.899898599999999 
 0.800411200000000 -0.500424899999998 
 0.498189899999999  0.901731599999999 
 0.298614700000000 -0.300047900000002 
 0.198903500000000  0.400129600000000 
-0.400996699999999  0.099007630000000 
-0.697449000000002 -0.300413700000001 
 0.200233200000001 -0.001006291640000 
-0.098845649999999  0.399461799999999 
 0.400147100000000  0.302008000000000 
 0.401204400000000 -0.900716600000001 
-0.897736700000000  0.600145500000000 
-0.299685800000000 -0.399603400000000 
 0.201740200000000  0.698792800000000 
-0.099019700000000  0.699038300000001 
 0.799517900000000 -0.299186300000000 
 0.801181600000000  0.798941700000000 
-0.700591900000000 -0.699873200000000 
-0.001455415406000  0.899355900000001 
 1.000624400000001 -0.200837200000000 
 0.999443000000001 -0.700605300000000 
-0.300316400000000 -0.900648399999999 
-0.099052320000000 -0.800149100000000 
 0.698275100000001  0.700297400000000 
 0.801298600000000  0.400764000000000 
 0.200902300000000 -0.201337100000000 
 0.701136899999999 -0.000234977100000 
 0.301230700000000  0.599675199999999 
-0.500782100000000  0.897963100000000 
-0.800988800000000 -0.100891720000000 
-0.699528900000000 -0.099422400000000 
-0.099542580000000 -0.198681499999999 
-0.498797100000000 -0.398484400000001 
-0.798859700000000  0.700346000000001 
-0.799929200000001 -0.599764899999998 
-0.101774620000000  0.199886700000000 
-0.501101600000001 -0.799893700000001 
 0.297958100000000 -1.002115899999999 
 0.301268400000000 -0.701831300000001 
 0.799918799999999  0.598863299999999 
 1.000101000000001  0.597736400000000 
-0.499747900000000  0.399151399999999 
 0.100852470000000  0.199242100000000 
 0.699331700000000 -0.500499999999999 
 0.599772800000001 -0.699297800000000 
-0.599593500000001  0.499170799999999 
-0.098267490000000  0.098352090000000 
 0.000305790060000 -0.799749699999999 
-0.499779500000000  0.199142800000000 
-0.399906200000000  0.298693300000000 
 0.298958700000000 -0.800913300000001 
-0.099890150000000 -0.599995600000000 
 0.598906699999999 -0.901063400000000 
 0.599484499999999  0.498834400000000 
-0.399125500000000 -0.600004000000001 
-0.899396499999998  0.399811200000000 
-0.399567600000000 -0.199937100000000 
-0.700980999999998  0.799728500000001 
 0.800664199999999 -0.199498100000000 
-0.499843499999999 -0.999747399999999 
 0.899616900000002 -0.999652699999999 
 0.100655980000000  0.498607400000001 
 0.599485500000001  0.600913100000000 
 0.699423199999999 -0.600678300000001 
 1.001075400000000 -1.001757300000000 
-0.100352280000000  0.297478500000000 
-0.899124600000000  0.799957100000000 
 0.399547000000000  0.899282900000001 
 0.000293383400000 -0.598411700000000 
 0.400474200000000 -0.399583300000000 
-0.001925484690000 -0.399792200000000 
 0.300118800000000  0.798714300000000 
 0.801082200000000  0.900221500000000 
 0.198568300000000 -0.601504100000001 
-0.000077870410000  0.600292700000000 
 0.399381000000000 -0.099717720000000 
-0.300210900000001 -0.099457030000000 
 0.398741299999999  0.401054000000000 
 0.900512800000000  0.100492910000000 
 0.699617900000000  0.800401900000000 
-0.898769300000000 -1.000725900000000 
 0.000209961890000  0.300082900000000 
 0.200830100000000 -0.100529810000000 
 0.501269300000000  0.298346700000000 
 0.501032500000002 -0.300141500000000 
 0.900983200000000 -0.300147600000000 
-0.901624800000000 -0.300271100000000 
 0.799709500000000 -0.802032200000000 
-0.799527800000000 -0.799050500000000 
-0.499586200000000 -0.100876050000000 
-0.200833200000000 -0.497274100000000 
-0.701273500000000  0.000619043450000 
 0.998639900000000 -0.597884900000000 
-0.700568000000000  0.400449100000000 
 0.900510000000000 -0.098294450000000 
-0.599021300000000  0.600437300000000 
-0.898161700000000  0.000791104100000 
 0.099846180000000  0.101358630000000 
-0.799091200000000 -0.500768700000000 
-0.198983400000000 -0.999070300000000 
 0.098794540000000  0.598631900000000 
 0.699828299999999  0.100594790000000 
-0.399867600000000 -0.799678000000000 
-0.699596400000000 -0.498892900000000 
 0.899927200000000  0.399553700000000 
-0.400521300000000  0.800806300000001 
 0.300862200000000  0.199982000000000 
-0.498672300000000 -0.302343400000000 
 0.900120000000000  0.700877500000000 
-0.401435500000000  0.598810800000001 
-0.599866500000000 -0.899865300000000 
 0.001272511560000 -0.200538800000000 
 0.201557700000000 -0.399346800000000 
-0.200490300000000 -0.298746500000000 
 0.400765300000000 -0.300892100000000 
 0.099739260000000  0.399819200000000 
-0.300294400000000  0.500012000000000 
-0.300094300000000  0.799136700000000 
 0.699089500000000 -1.000459700000000 
 0.400769700000000  0.599197299999999 
 0.000329264908000  0.800084100000001 
 0.100235190000000 -0.801232500000000 
 0.699686800000000 -0.300355600000000 
-0.599619200000000  0.799800200000000 
 0.499221100000000 -1.000489800000000 
 0.699852600000000 -0.102759540000000 
-0.900014299999999  0.200079600000000 
 0.499789800000000 -0.001733505230000 
 0.098751970000000 -1.000190300000000 
 0.600300100000000 -0.800080800000000 
-0.398794600000000  0.400140000000000 
-0.299509400000000 -0.598879600000000 
 0.100558920000000 -0.099041770000000 
-0.501337000000000 -0.499144500000000 
-0.599455300000000 -0.200749500000000 
-0.500029100000000  0.500066100000000 
-0.600620800000000 -0.700341300000000 
 0.599802900000000  0.000891102030000 
-0.700459700000000  0.500984200000000 
-0.199811000000000  0.701074000000000 
-0.899157500000001 -0.499838100000000 
 0.198820700000000 -0.700256400000000 
-0.701250500000000 -1.001664199999999 
 0.600059700000000 -0.400077400000000 
-0.000563870590000  0.098618030000000 
-0.800537000000000 -0.201733700000000 
-0.701160400000000  0.698348400000000 
 0.500782399999999 -0.800654900000000 
 0.599350400000000  0.397848500000000 
-0.497347200000000 -0.601505600000000 
-0.598964200000000 -0.800211400000000 
 0.500266499999999 -0.099580280000000 
 0.702421900000000  0.300330700000000 
-0.199358600000000  0.099635410000000 
 0.400210000000000  0.799758200000000 
 0.899173500000000 -0.499148500000000 
-0.199471300000000 -0.100554990000000 
 0.901667100000000  0.199370700000000 
-0.100132140000000 -0.299285300000000 
-0.199758000000000  0.301337000000000 
 0.201799100000000  0.602213600000000 
 0.900713300000000 -0.400073300000000 
 0.998801100000000 -0.098977680000000 
 0.999302400000000  0.700924400000000 
 0.901650600000000  0.301409100000000 
 0.400481100000000  0.200057600000000 
 0.899168400000000 -0.800304300000000 
-0.799971700000000 -0.300220000000000 
 0.099907800000000  0.299406100000000 
 0.900068600000000 -0.900438800000000 
 0.200410200000000  0.300519400000000 
-0.001636071500000  0.199273000000000 
 0.398506100000000  0.498630600000000 
 0.299813100000000  0.099220360000000 
 0.199776100000000 -0.501372000000000 
 0.398376100000000  0.697938900000000 
-0.300595600000000 -0.801502800000000 
 0.799379500000000  0.300390200000000 
-0.399651000000000 -0.100608920000000 
-0.101068450000000 -0.500836700000000 
 0.498973400000000  0.199699400000000 
-0.900147800000000  0.899855100000000 
 0.099857580000000  0.798647800000000 
-0.200555700000000  0.799012300000000 
-0.700411200000000 -0.801370000000000 
-0.001542596400000 -0.501665400000000 
 0.100147740000000 -0.401494300000000 
-0.701774100000000  0.299195800000000 
 0.901170600000000 -0.200843100000000 
 0.199274200000000 -0.898839000000000 
 0.400613200000000 -0.800543800000000 
 0.699378500000000 -0.200475800000000 
 0.199193700000000  0.501055200000000 
 0.200280800000000  0.799512800000000 
 0.799647000000000  0.100625230000000 
 0.399469500000000 -0.600527000000000 
-0.900819500000000  0.099626200000000 
 0.299306100000000 -0.398538600000000 
-0.499327500000000 -0.000041370700000 
-0.700282100000000 -0.200651200000000 
 0.800596700000000 -0.100839270000000 
-0.398270600000000 -0.700292100000000 
-0.600251200000000  0.699478600000000 
-0.000207988808000  0.700870400000000 
-0.200198000000000 -0.800999400000000 
 0.399245800000000 -0.000354757510000 
-0.399426000000000  0.699770800000000 
 0.398957200000000 -0.500380900000000 
-0.699548900000000  0.899856000000000 
 0.799780000000000 -0.398919200000000 
-0.400857900000000  0.198576600000000 
-0.599435200000000 -0.099937710000000 
 0.699973200000000 -0.799091300000000 
 0.598620100000000  0.699706900000000 
-0.201360600000000 -0.900514100000000 
-0.099789170000000  0.801030400000000 
-0.199547800000000 -0.399541200000000 
 0.000197459400000  0.499655100000000 
 0.900117500000000  0.899576899999999 
-0.100350380000000 -0.100644460000000 
-0.400015800000000 -0.999572999999999 
 0.700847100000000  0.500072200000000 
-0.799798200000000  0.599116400000000 
-0.300563300000000  0.600495000000000 
-0.300637800000000 -1.000826900000000 
-0.800366900000000  0.399439500000000 
-0.399670200000000 -0.300791400000000 
 0.300280300000000 -0.199061900000000 
-0.198973200000000  0.500255700000000 
-0.699671800000000 -0.400549700000000 
-0.099150410000000 -0.001107378240000 
 0.498857800000000 -0.199817100000000 
 0.599296000000000  0.100168050000000 
-0.198202400000000 -0.700600500000000 
 0.299594000000000  0.898624100000000 
 0.500047200000000 -0.399329800000000 
 0.100441350000000 -0.001046618700000 
 0.201112100000000  0.099763360000000 
 0.400071600000000 -1.000080200000000 
-0.498679200000000  0.299321400000000 
 0.600329100000000 -0.600475700000000 
-0.399642600000000 -0.400277900000000 
 0.300139600000000  0.700092100000000 
-0.398413700000000 -0.499601600000000 
 0.501302100000000  0.400115000000000 
 0.699733200000000  0.198815500000000 
 0.299301100000000  0.401493100000000 
-0.298793400000000 -0.299999000000000 
-0.900365900000000 -0.098984110000000 
 0.499490800000000  0.601607700000000 
-0.500285400000000  0.099400850000000 
-0.299484300000001  0.100485250000000 
 0.899404000000000 -0.600323100000001 
 0.600928100000000  0.798515700000000 
-0.901085300000000  0.500376200000000 
-0.902539700000000 -0.598726800000000 
-0.099175260000000  0.501445500000000 
 0.900493800000000  0.498696300000000 
-0.901108300000000 -0.900647700000000 
 0.799936200000000 -1.000494000000001 
 0.000210661910000 -0.300145000000000 
-0.199310500000000 -0.600888300000000 
-0.599245700000000 -1.001721900000000 
-0.100535550000000  0.900376800000000 
 0.100785310000000 -0.198682500000000 
 0.600229200000000 -0.500048700000000 
 0.800317000000000  0.700578300000000 
 0.500399400000000 -0.700850600000000 
 1.000102899999999  0.499153200000000 
-0.899147000000000  0.699640000000000 
-0.898705300000000  0.300617000000000 
-0.799933300000000 -0.999189700000000 
 0.601120400000000  0.901473300000000 
 0.299392000000000 -0.100410490000000 
 0.501137200000000 -0.900568900000000 
 0.700848900000000 -0.899373700000000 
-0.500494200000000  0.799708100000000 
-0.899845200000000 -0.799566500000000 
 0.200526100000000 -0.799016100000000 
-0.699194200000000  0.101038770000000 
-0.798508300000000  0.201151900000000 
-0.799305700000000 -0.699879400000000 
 1.001614199999999 -0.799851900000000 
-0.299733500000000  0.300072400000000 
-0.599767800000000 -0.399643900000000 
-0.600010300000000 -0.500504900000000 
-0.098163110000000 -1.000354599999999 
 0.200234200000000 -0.999732100000000 
 0.799742300000000  0.500888700000000 
-0.499292700000000 -0.198732900000000 
 0.300179900000000 -0.600709700000000 
-0.799639600000000  0.798823400000000 
 0.599613000000000 -0.300089700000000 
-0.698545100000000  0.200759300000000 
-0.799168200000000  0.000120216560000 
-0.500039500000000  0.599132100000000 
 0.100873360000000 -0.600947100000000 
-0.501243900000000 -0.899761200000000 
 0.500260800000000  0.798598600000000 
-0.201021300000000  0.400364900000000 
-0.300984900000000 -0.000683803720000 
 0.900024900000000  0.799775200000000 
 0.899255400000000 -0.000312733500000 
 0.800116700000000 -0.700566700000000 
 1.000850500000000  0.099484700000000 
 0.100010390000000  0.699961400000000 
 1.000127500000000 -0.401595400000000 
 1.000128000000000  0.299735600000000 
-0.198559500000000 -0.199377400000000 
 0.800859500000000 -0.599582100000000 
 0.200875500000000 -0.298456900000000 
 0.100070050000000 -0.900444400000000 
 0.301685400000000  0.299140600000000 
-0.600694400000000  0.401081400000000 
 0.000467282351980 -0.897502500000000 
-0.700039000000000 -0.600453800000000 
 0.601080600000000  0.300155700000000 
 0.000047640500000 -0.700839600000000 
-0.896719300000000 -0.399494000000000 
-0.399197600000000  0.899079600000000 
-0.198536100000000  0.198709900000000 
