0.000000 0.000000 0.000000 0.000000 0.000000 0.000000 0.000000 0.000000 0.000000 
-1164.909306 -21.714845 -16.486704 -2.928725 -17.763925 18.791445 4.306253 17.804902 10.771142 
905.213971 5.877768 29.076303 36.526087 -10.221453 31.269256 -14.567790 -7.832778 2.970573 
852.739399 -11.154572 -14.090024 5.290855 -13.608834 13.032079 -5.064311 11.443470 12.393273 
1084.847194 12.873609 12.786455 -1.660813 13.782939 -14.773368 -0.029798 -15.609220 -19.244487 
-1.433130 -45.278140 -75.301256 -45.947450 -8.129959 12.135668 35.098120 73.333686 40.195638 
1217.172055 -7.503625 -11.259980 -12.217694 13.131308 -28.320226 21.654715 25.724623 5.690486 
1026.345230 -0.328182 -17.025922 -16.932180 14.225016 -10.439422 13.962439 10.748759 0.399773 
-23.333250 -56.537436 -16.867491 14.280527 -82.714170 37.550858 -54.384936 -26.331400 10.779824 
20.328840 19.232320 4.531193 41.848299 2.274341 26.225506 12.404371 26.341391 44.172314 
-35.044708 30.433933 -7.193484 -48.211538 77.349928 -62.110069 24.336569 -9.633011 -52.550148 
1264.081223 2.040184 17.377764 15.953677 -12.384524 16.128033 -12.780983 -17.726859 -1.080219 
1232.340883 -29.853021 -18.417447 -5.422058 -23.465045 10.461267 -17.734686 14.306649 7.761022 
