0.000000 0.000000 0.000000 0.000000 0.000000 0.000000 0.000000 0.000000 
-43.542605 21.332514 -36.712186 60.079401 -109.861390 49.151388 -66.208849 30.390319 
5.327726 -22.933220 20.999633 -18.980510 35.136978 -16.719772 -350.447989 22.271906 
-88.476958 74.106770 -12.936807 113.039660 -2.177593 -27.306700 63.196146 35.414620 
-91.314467 73.597059 7.857484 -129.683771 150.362705 46.638898 16.085510 65.804141 
-1.553245 72.053862 11.893442 -21.476647 -27.960505 -114.219435 -69.257343 -61.785674 
-3.508899 167.214284 -24.992794 93.820068 34.164321 -22.421352 -232.094449 -116.575538 
29.149915 -92.180619 17.899093 49.756446 17.586299 -13.178142 -162.470818 12.027527 
-46.916363 -62.371796 -11.141066 -15.477875 -33.965871 34.318524 -41.341385 162.583862 
22.468476 -128.439937 4.566962 -50.796337 -70.267953 121.340530 25.347230 55.981091 
-32.019929 -36.958376 44.162727 76.120702 88.200943 -91.679311 -107.045439 71.904125 
-25.206764 -17.219271 12.759453 -8.972391 5.126478 68.458903 50.032373 1.615334 
20.222859 -64.779836 24.075493 -38.214070 -20.419945 -70.919677 130.441601 39.888543 
-109.457857 111.319686 -5.085952 -38.662242 -90.638696 -43.919598 54.218740 78.938042 
0.967762 156.783232 -36.276614 -92.708849 -73.217270 -51.630296 112.221719 -130.212356 
-18.924965 -31.793698 71.758263 23.806475 -11.814856 3.262410 130.718217 36.616024 
14.150836 -26.721206 -56.285825 -42.866987 -56.199248 -61.144073 -60.852180 3.662541 
-21.257162 -58.944365 19.217823 41.581334 70.395038 9.401901 -5.019681 35.969887 
25.228805 -91.694021 -11.588088 18.431593 11.666762 59.214221 54.488972 -6.941612 
29.634571 -8.850923 81.212092 61.673667 -1.419711 63.954168 26.691336 -171.759328 
