0.000000 0.000000 0.000000 0.000000 0.000000 0.000000 0.000000 0.000000 0.000000 0.000000 0.000000 0.000000 0.000000 0.000000 0.000000 0.000000 0.000000 0.000000 0.000000 0.000000 
3.481279 -65.757919 -37.801675 -30.934444 -23.790025 -4.446493 -75.160949 -8.403197 45.878403 2.495413 4.735254 21.678918 -36.700436 0.079767 -16.010462 6.312829 -20.520105 -7.133637 38.591061 -47.883628 
-60.453920 -48.412094 11.547665 0.180728 -84.544243 -15.305533 0.246361 16.129358 22.500677 -20.310983 -35.094018 -11.148751 55.155514 9.777897 -25.578152 -14.382027 13.055789 -15.938540 20.006635 -8.522278 
5.303987 13.073360 41.222575 106.220167 -24.478749 -19.027143 -0.249312 0.660901 -47.434481 -18.969213 -36.309764 26.248288 -23.770810 -27.409389 19.381669 -88.334284 -24.038592 36.968950 -7.995166 -66.503659 
-4.546525 -7.408520 19.408678 -2.173742 7.993157 -27.083108 -33.539438 11.405001 -65.602064 -18.968921 4.239982 4.321021 -16.644996 0.804782 -27.632283 -10.418374 -29.873338 5.896293 23.509895 -0.464212 
-40.727468 17.868411 -2.599918 -5.077207 49.746681 -3.696493 -41.710673 45.946049 -27.056700 10.297086 12.849489 -27.791266 -0.510550 98.198260 -54.604197 -2.756331 15.094570 -0.231258 29.171305 16.519267 
-10.904513 -22.061368 53.111540 -0.942958 5.707842 25.069766 -25.536518 67.492643 -0.768486 -28.374385 -14.646161 11.206999 -10.275876 -53.213671 -66.001059 -64.152372 35.941377 12.994084 13.257029 -43.775377 
-34.469014 -2.517942 -17.898908 -3.475422 -26.106981 -4.026041 -42.922365 11.726341 -46.931508 9.616228 5.515759 7.851576 59.485025 -22.125307 -11.750823 18.262059 -52.593858 9.107853 38.184230 -26.432461 
42.413946 -51.681282 10.999647 11.349702 6.856864 -71.132516 -24.366676 -41.364671 -25.892014 19.839273 -1.976097 -29.246749 -32.805045 15.748150 -28.535468 -31.138016 -25.770678 4.201260 -6.402969 -6.053725 
-45.182508 -34.555528 -73.867572 14.692917 16.572678 -32.783754 -15.342511 18.596753 13.473041 16.643252 -29.273934 39.603088 19.746093 16.082047 1.576151 27.186577 -32.551642 -22.056698 37.227754 -33.802141 
-49.015508 19.445224 25.600762 -8.850422 -6.966548 26.330597 16.027219 -17.059084 4.544335 39.713820 51.242638 -13.320639 -30.966733 -18.229336 39.186468 -34.349932 -4.315868 -56.154801 -44.031069 71.701835 
-75.686133 -54.701073 -8.704053 10.798690 19.467165 25.352859 -4.667110 11.988438 -21.559936 26.357316 0.779594 36.721393 19.888798 -4.399443 40.063265 18.003364 -1.892123 17.275463 -22.304384 24.189659 
-56.977145 -12.499403 1.269287 -12.333066 -34.199927 -11.268208 -4.172062 7.214802 -0.847696 -10.694319 14.569668 29.533108 43.462365 -16.103546 -40.638756 17.952291 -7.067610 40.378205 18.082059 -16.994554 
14.569640 7.169384 7.541174 2.532874 -14.486392 -12.477010 -13.361737 -6.410595 -43.196480 9.394911 -37.568818 27.222005 -19.743865 0.662456 -49.576018 -56.383189 -7.991827 -42.779667 4.605653 45.801856 
