0.000000 0.000000 0.000000 0.000000 0.000000 0.000000 0.000000 0.000000 
-36.429287 112.463532 -62.776852 -13.355314 -32.513909 -22.166063 -166.581791 -15.785051 
4.645396 133.736455 56.344042 -19.106201 -8.528914 -10.883935 -195.517513 -139.395211 
7.285716 -4.313690 -45.773830 -205.529542 -16.182749 127.110278 -166.516227 -11.798065 
-1.395703 42.454220 49.383269 -25.221820 35.852362 152.104039 348.163630 -41.687376 
27.279845 -75.889018 -21.413487 -11.851980 73.118108 15.921514 -282.282979 3.085307 
-55.399624 -17.901268 8.870204 39.135797 4.071958 18.527765 -58.352291 93.096023 
33.378484 81.026375 100.449703 -64.822632 -63.249536 -7.741227 1.577284 -171.171719 
72.045069 -99.213012 -70.388421 -77.332115 -117.505914 -40.924423 -77.597934 -1.709622 
3.461063 -79.487324 67.525272 17.541529 -126.517044 -43.337091 133.628924 43.580349 
-12.214754 53.019710 23.861173 42.015882 38.163941 44.401165 -173.492968 -42.798528 
52.881879 -154.289973 -30.056831 29.888589 14.774480 31.597118 95.100112 -27.846154 
48.379894 -97.235764 -18.170752 24.614344 -2.715248 20.388644 -11.643095 -94.242078 
-4.665770 -9.242091 30.480840 61.857742 45.426664 -57.557242 15.369015 -1.920040 
9.628098 -21.950823 -31.428074 0.434200 42.670065 -34.437152 80.448046 -45.367540 
2.493450 -35.852074 5.493503 -6.041311 -130.365659 149.706133 -106.366249 0.391090 
0.940180 -72.709959 9.999795 13.587208 -12.545567 36.529607 121.310219 35.649020 
-50.659371 41.274538 -61.128675 -29.549009 12.811136 -3.153095 -7.133009 55.461553 
-6.534241 -172.690083 -66.469988 22.928536 23.013886 2.889764 -85.134263 167.744101 
-5.728639 9.928626 128.518881 -31.336750 28.109848 15.823119 135.956966 -18.022221 
