0.000000 0.000000 0.000000 0.000000 0.000000 0.000000 0.000000 0.000000 0.000000 0.000000 0.000000 0.000000 0.000000 0.000000 0.000000 0.000000 0.000000 0.000000 0.000000 0.000000 
-20.655972 14.995706 15.179949 12.505208 -30.219107 8.617392 -40.429228 8.607911 3.103501 1.606046 24.806302 -6.782198 0.851747 11.177631 -88.127225 -14.586853 -12.963853 3.409210 39.554847 10.490000 
-9.899276 2.593960 -6.405585 0.051910 -16.102006 -0.153742 -107.951689 -73.559105 1.200015 -12.148733 -1.704478 20.753828 8.756135 32.818706 7.254632 46.049392 -27.703016 -88.564408 10.054263 2.728881 
2.122989 -9.841223 -12.946829 21.423527 -21.331385 64.164173 4.900530 18.076028 3.114767 -40.252716 -7.442589 -41.192960 -3.141201 20.107740 -16.644780 -18.843179 -50.102492 26.176584 33.439281 -49.479583 
3.257776 51.566779 -14.610741 7.502146 -41.970846 -15.948075 -38.230308 -8.246251 -51.853771 -22.582014 49.594195 11.494818 63.052479 3.933090 -19.948571 26.954856 13.884244 -64.189687 -5.832312 2.696294 
-36.813548 -37.226077 -68.938160 -3.704722 21.125754 -20.580759 36.048457 -1.487010 -0.516383 21.028258 12.528339 -68.139817 0.796599 28.002364 0.158445 -4.806946 -5.031447 -21.181899 -16.119424 -18.218200 
-49.727697 -1.933485 -0.165075 3.335731 46.121584 -6.069391 -50.393541 -1.043019 4.411481 23.121748 -4.836726 28.005499 -59.746583 -25.730783 2.080007 5.343685 8.835802 -88.399139 46.838098 -1.414650 
-23.887148 -24.644805 -12.987406 8.657806 -10.466911 2.550342 -22.413349 -41.696417 27.360400 -28.263911 -38.160307 2.556604 -20.165896 49.682259 -19.236470 4.553262 -10.994991 -20.011501 34.326354 -3.579114 
-50.580555 -62.147660 -31.101634 -22.768939 39.415396 40.420578 -8.639620 22.938099 -17.369234 0.601155 -34.584656 8.608648 15.591556 -4.335058 -29.775378 23.478393 -8.010212 -12.098007 -63.887504 14.652377 
-20.970575 24.278127 26.830228 15.580000 -22.856914 27.138456 46.848878 -7.723085 -12.499931 -41.319132 36.248634 -8.000135 -20.190294 -17.542687 21.300542 14.566335 -48.293908 -31.324967 3.383336 3.199890 
-38.244828 -17.490270 -24.594106 18.530347 30.481298 -38.948910 1.406782 -45.835897 -53.812940 -10.793615 -15.851354 1.361610 -0.038040 -20.140949 -6.268609 -0.267581 -16.011768 64.207660 -12.610703 -15.060610 
12.198017 -2.867575 -3.879084 12.901959 22.309754 17.753884 -47.017497 -19.766216 -11.340096 -11.755137 -96.560962 -93.425538 -8.421829 -13.906061 -3.651098 -89.079685 7.398932 -24.075136 -6.782607 -18.425241 
-33.888227 18.540997 -28.461581 8.544819 -5.847584 1.444978 -47.148094 -34.171565 -28.504324 -30.824296 -34.928474 30.382353 -4.004915 2.313959 6.467208 -10.895591 42.868085 15.240783 -54.076527 32.266899 
11.402342 -102.654779 -93.312799 6.331423 -18.691758 11.230303 -0.840914 -9.129585 -7.543072 -3.588423 -12.295844 9.178462 -19.470722 -10.508625 2.073771 -20.730219 14.347997 -1.951381 -12.645673 4.270426 
