0.000000 0.000000 0.000000 0.000000 0.000000 0.000000 0.000000 0.000000 0.000000 0.000000 
4.019214 -12.699225 -10.468188 -3.213325 5.091423 -11.479027 7.848455 3.664681 -8.221603 2.473789 
4.494528 -8.416880 7.754563 12.617954 -6.754637 -18.850558 -4.715009 -10.223164 2.942410 -1.723146 
8.425674 5.134974 -3.629912 9.926581 -2.649708 14.619650 -25.778501 -19.633779 -1.508231 -7.346389 
-1.062789 10.447916 1.716804 -18.303917 -13.222025 -4.454288 15.483631 -8.536639 -9.263580 12.453094 
-3.451511 -1.676248 3.549291 -1.640525 -32.116873 6.568993 31.546627 3.626682 -0.250224 -4.057885 
-16.752749 -4.235464 -2.650656 -1.208605 15.202931 30.799330 -23.814991 11.492224 -2.214609 -2.148009 
-1.397506 5.544248 -6.055978 6.023660 -22.414545 -14.928488 14.564364 5.227084 3.632901 -10.319364 
1.472456 -13.528183 -1.734201 -1.667242 18.292505 -34.922722 16.244754 13.706516 3.244776 -3.983615 
-1.752892 -12.972803 16.132292 -4.828749 38.461637 -32.298019 -10.938593 -4.541379 10.951583 -4.531341 
3.851245 -6.253228 -14.278040 -16.230296 2.734450 14.890392 8.854162 -3.068196 -2.282506 -9.688398 
-4.092713 -6.085664 -2.986790 3.132738 26.531520 -0.584462 -11.716921 -16.091817 -13.845910 5.074426 
-15.134201 -8.246413 14.569949 -14.840045 -5.328328 42.205069 -22.981092 8.032315 14.384967 2.835573 
-19.664157 -1.520576 -3.660968 14.374623 0.713198 0.894891 24.512353 -6.632596 4.995565 -3.868817 
0.107311 8.663169 0.434352 -1.083871 9.825883 -9.339185 -20.572532 16.749240 -26.052680 4.562832 
-0.076420 -4.166740 -6.942558 6.894958 -5.410342 51.615080 -45.002499 4.433591 0.505118 -2.683509 
-5.697412 -3.941483 -6.158044 1.034282 -31.881382 29.817854 7.245837 6.447844 -0.041676 -1.768623 
-17.590397 7.931899 -3.061985 -2.495613 21.836455 12.324497 5.321571 -4.117146 0.904659 3.845676 
