0.000000 0.000000 0.000000 0.000000 0.000000 0.000000 0.000000 0.000000 0.000000 0.000000 0.000000 0.000000 0.000000 0.000000 0.000000 0.000000 0.000000 0.000000 
-8.150660 -7.063180 -1.795999 4.882313 -8.442817 -0.299977 10.085926 -0.694025 -1.628297 -0.367779 4.726339 -9.027806 -7.835458 -10.260153 -10.850739 -1.331553 -2.796994 10.623870 
8.823172 8.580391 2.065040 -4.140387 -9.173731 -6.481014 -8.698099 -11.646468 13.756654 6.548263 -5.781053 1.171860 -15.611230 -2.001359 -9.349831 -18.976914 -5.712513 -0.219847 
-3.406962 12.772197 1.647900 -6.567919 -0.553376 -5.877284 -2.423021 11.487266 4.707420 -3.613046 -9.807007 -3.246953 -4.187253 0.056965 9.489799 -11.255101 -10.182881 -7.920549 
-1.619448 -6.874461 -9.064798 -19.956885 -9.783141 2.663678 3.411565 -10.076223 -1.054200 2.113276 10.930080 2.177826 4.204947 9.600467 -1.956786 -4.521364 -0.351858 -9.685532 
-7.270715 5.899465 10.052572 -7.648801 8.222446 8.478665 -13.216809 9.014041 6.879440 -15.472919 -2.527182 -10.552214 -5.939602 3.624543 -16.283578 -8.453367 1.233998 -0.802726 
-6.787784 -2.340751 -5.504490 -6.522924 5.118805 1.884445 -1.952315 -5.748672 0.428163 -4.989917 -6.255963 5.614359 -14.979463 6.364169 -0.923852 4.597464 -15.176294 3.889341 
-12.724448 5.493692 -1.381541 12.284694 -3.021275 -10.437041 7.091819 -6.292905 -13.148356 -11.437856 2.507735 -6.748113 6.194314 0.391802 -4.711212 8.842679 11.662260 -6.988634 
2.485714 -7.345428 0.899907 -1.988712 -0.360681 -10.287952 -4.027076 -1.231446 3.127002 0.652640 -5.801899 -8.238632 -5.471958 -1.469521 -4.389627 -2.248881 -3.834571 -2.066496 
-11.278647 3.657021 1.805094 -4.263519 8.372573 -7.131312 -7.427802 2.796839 -1.765033 1.195907 9.554220 7.040080 -4.482880 0.909969 -11.087948 -3.595803 -5.487042 0.212390 
-1.219361 -1.472540 6.174992 9.252853 -9.907612 -2.985185 -1.875082 -5.568489 -3.136841 -0.803997 4.827574 -0.845479 0.798821 -6.001476 -2.380534 -12.802196 -5.489812 -7.303468 
-4.659776 6.852178 10.989016 -7.000725 -4.655550 -1.598973 -5.529349 3.265126 2.914173 0.198063 -10.060954 -13.026080 1.633041 -5.805458 7.317030 1.127105 -1.032832 5.144176 
-2.803932 -0.871602 -2.209509 -1.343581 -7.053018 -2.149727 -7.135149 -0.883325 -2.153602 -2.652465 0.808715 -0.884888 -7.854513 -3.100688 -10.642863 8.639948 0.258075 -16.164558 
1.135745 -2.161793 -0.160361 -4.860598 -17.918459 -17.505225 8.898508 -5.598199 1.482550 7.454076 -0.704563 4.696563 -11.014711 -7.270053 3.043896 2.650547 -13.518546 2.519605 
